digraph Tree {
node [shape=box, style="filled", color="black"] ;
0 [label="sector <= 1.5\ngini = 0.484\nsamples = 432550\nvalue = [177035, 255515]", fillcolor="#c2e1f7"] ;
1 [label="Te va bien en matem <= 2.5\ngini = 0.5\nsamples = 298403\nvalue = [144851, 153552]", fillcolor="#f4f9fe"] ;
0 -> 1 [labeldistance=2.5, labelangle=45, headlabel="True"] ;
2 [label="Cultiva en casa <= 1.5\ngini = 0.489\nsamples = 201030\nvalue = [85544, 115486]", fillcolor="#cce6f8"] ;
1 -> 2 ;
3 [label="Realiza Tareas en el Hogar <= 1.5\ngini = 0.486\nsamples = 50797\nvalue = [29596, 21201]", fillcolor="#f8dbc7"] ;
2 -> 3 ;
4 [label="Computadora <= -7.5\ngini = 0.458\nsamples = 32289\nvalue = [20810, 11479]", fillcolor="#f3c7a6"] ;
3 -> 4 ;
5 [label="cod_provincia <= 4.0\ngini = 0.413\nsamples = 12715\nvalue = [9007, 3708]", fillcolor="#f0b58b"] ;
4 -> 5 ;
6 [label="gini = 0.482\nsamples = 383\nvalue = [155, 228]", fillcolor="#c0e0f7"] ;
5 -> 6 ;
7 [label="gini = 0.405\nsamples = 12332\nvalue = [8852, 3480]", fillcolor="#efb387"] ;
5 -> 7 ;
8 [label="Repitio de grado <= 1.5\ngini = 0.479\nsamples = 19574\nvalue = [11803, 7771]", fillcolor="#f6d4bb"] ;
4 -> 8 ;
9 [label="gini = 0.487\nsamples = 16581\nvalue = [9633, 6948]", fillcolor="#f8dcc8"] ;
8 -> 9 ;
10 [label="gini = 0.399\nsamples = 2993\nvalue = [2170, 823]", fillcolor="#efb184"] ;
8 -> 10 ;
11 [label="Computadora <= -7.5\ngini = 0.499\nsamples = 18508\nvalue = [8786, 9722]", fillcolor="#ecf6fc"] ;
3 -> 11 ;
12 [label="Repitio de grado <= 1.5\ngini = 0.47\nsamples = 3779\nvalue = [2354, 1425]", fillcolor="#f5cdb1"] ;
11 -> 12 ;
13 [label="gini = 0.479\nsamples = 3162\nvalue = [1904, 1258]", fillcolor="#f6d4bc"] ;
12 -> 13 ;
14 [label="gini = 0.395\nsamples = 617\nvalue = [450, 167]", fillcolor="#efb082"] ;
12 -> 14 ;
15 [label="Cuantos Libros <= 1.5\ngini = 0.492\nsamples = 14729\nvalue = [6432, 8297]", fillcolor="#d2e9f9"] ;
11 -> 15 ;
16 [label="gini = 0.493\nsamples = 2616\nvalue = [1462, 1154]", fillcolor="#fae4d5"] ;
15 -> 16 ;
17 [label="gini = 0.484\nsamples = 12113\nvalue = [4970, 7143]", fillcolor="#c3e1f7"] ;
15 -> 17 ;
18 [label="Cuantos Libros <= 1.5\ngini = 0.467\nsamples = 150233\nvalue = [55948, 94285]", fillcolor="#aed7f4"] ;
2 -> 18 ;
19 [label="Como escribe <= 1.5\ngini = 0.498\nsamples = 26434\nvalue = [13974, 12460]", fillcolor="#fcf1ea"] ;
18 -> 19 ;
20 [label="Repitio de grado <= 1.5\ngini = 0.483\nsamples = 9205\nvalue = [5454, 3751]", fillcolor="#f7d8c1"] ;
19 -> 20 ;
21 [label="gini = 0.488\nsamples = 7885\nvalue = [4542, 3343]", fillcolor="#f8decb"] ;
20 -> 21 ;
22 [label="gini = 0.427\nsamples = 1320\nvalue = [912, 408]", fillcolor="#f1b992"] ;
20 -> 22 ;
23 [label="Resuelve matem. <= 2.5\ngini = 0.5\nsamples = 17229\nvalue = [8520, 8709]", fillcolor="#fbfdfe"] ;
19 -> 23 ;
24 [label="gini = 0.498\nsamples = 13241\nvalue = [6163, 7078]", fillcolor="#e5f2fc"] ;
23 -> 24 ;
25 [label="gini = 0.483\nsamples = 3988\nvalue = [2357, 1631]", fillcolor="#f7d8c2"] ;
23 -> 25 ;
26 [label="Repitio de grado <= 1.5\ngini = 0.448\nsamples = 123799\nvalue = [41974, 81825]", fillcolor="#9fcff2"] ;
18 -> 26 ;
27 [label="Resuelve matem. <= 2.5\ngini = 0.436\nsamples = 114730\nvalue = [36773, 77957]", fillcolor="#96cbf1"] ;
26 -> 27 ;
28 [label="gini = 0.419\nsamples = 98964\nvalue = [29544, 69420]", fillcolor="#8dc7f0"] ;
27 -> 28 ;
29 [label="gini = 0.497\nsamples = 15766\nvalue = [7229, 8537]", fillcolor="#e1f0fb"] ;
27 -> 29 ;
30 [label="Falta a la escuela por trabajo <= 0.0\ngini = 0.489\nsamples = 9069\nvalue = [5201, 3868]", fillcolor="#f8dfcc"] ;
26 -> 30 ;
31 [label="gini = 0.482\nsamples = 7502\nvalue = [4463, 3039]", fillcolor="#f7d7c0"] ;
30 -> 31 ;
32 [label="gini = 0.498\nsamples = 1567\nvalue = [738, 829]", fillcolor="#e9f4fc"] ;
30 -> 32 ;
33 [label="Cultiva en casa <= -2.5\ngini = 0.476\nsamples = 97373\nvalue = [59307, 38066]", fillcolor="#f6d2b8"] ;
1 -> 33 ;
34 [label="Realiza Tareas en el Hogar <= 1.5\ngini = 0.408\nsamples = 21642\nvalue = [15453, 6189]", fillcolor="#efb388"] ;
33 -> 34 ;
35 [label="ambito <= 1.5\ngini = 0.379\nsamples = 14000\nvalue = [10444, 3556]", fillcolor="#eeac7c"] ;
34 -> 35 ;
36 [label="Agua potable <= -7.5\ngini = 0.361\nsamples = 11674\nvalue = [8918, 2756]", fillcolor="#eda876"] ;
35 -> 36 ;
37 [label="gini = 0.299\nsamples = 3494\nvalue = [2855, 639]", fillcolor="#eb9d65"] ;
36 -> 37 ;
38 [label="gini = 0.384\nsamples = 8180\nvalue = [6063, 2117]", fillcolor="#eead7e"] ;
36 -> 38 ;
39 [label="Agua potable <= 1.5\ngini = 0.451\nsamples = 2326\nvalue = [1526, 800]", fillcolor="#f3c3a1"] ;
35 -> 39 ;
40 [label="gini = 0.44\nsamples = 2089\nvalue = [1407, 682]", fillcolor="#f2be99"] ;
39 -> 40 ;
41 [label="gini = 0.5\nsamples = 237\nvalue = [119, 118]", fillcolor="#fffefd"] ;
39 -> 41 ;
42 [label="Agua potable <= -2.5\ngini = 0.452\nsamples = 7642\nvalue = [5009, 2633]", fillcolor="#f3c3a1"] ;
34 -> 42 ;
43 [label="Falta a la escuela por trabajo <= 1.5\ngini = 0.372\nsamples = 1540\nvalue = [1159, 381]", fillcolor="#eeaa7a"] ;
42 -> 43 ;
44 [label="gini = 0.36\nsamples = 1420\nvalue = [1086, 334]", fillcolor="#eda876"] ;
43 -> 44 ;
45 [label="gini = 0.477\nsamples = 120\nvalue = [73, 47]", fillcolor="#f6d2b8"] ;
43 -> 45 ;
46 [label="Cuida familiar <= 1.5\ngini = 0.466\nsamples = 6102\nvalue = [3850, 2252]", fillcolor="#f4cbad"] ;
42 -> 46 ;
47 [label="gini = 0.445\nsamples = 3637\nvalue = [2422, 1215]", fillcolor="#f2c09c"] ;
46 -> 47 ;
48 [label="gini = 0.487\nsamples = 2465\nvalue = [1428, 1037]", fillcolor="#f8dcc9"] ;
46 -> 48 ;
49 [label="Cuantos Libros <= 1.5\ngini = 0.487\nsamples = 75731\nvalue = [43854, 31877]", fillcolor="#f8ddc9"] ;
33 -> 49 ;
50 [label="ambito <= 1.5\ngini = 0.447\nsamples = 18767\nvalue = [12442, 6325]", fillcolor="#f2c19e"] ;
49 -> 50 ;
51 [label="Ayuda a los padres trabajando <= 1.5\ngini = 0.431\nsamples = 15536\nvalue = [10650, 4886]", fillcolor="#f1bb94"] ;
50 -> 51 ;
52 [label="gini = 0.401\nsamples = 7495\nvalue = [5412, 2083]", fillcolor="#efb185"] ;
51 -> 52 ;
53 [label="gini = 0.454\nsamples = 8041\nvalue = [5238, 2803]", fillcolor="#f3c4a3"] ;
51 -> 53 ;
54 [label="Agua potable <= 1.5\ngini = 0.494\nsamples = 3231\nvalue = [1792, 1439]", fillcolor="#fae6d8"] ;
50 -> 54 ;
55 [label="gini = 0.484\nsamples = 2532\nvalue = [1494, 1038]", fillcolor="#f7d9c3"] ;
54 -> 55 ;
56 [label="gini = 0.489\nsamples = 699\nvalue = [298, 401]", fillcolor="#cce6f8"] ;
54 -> 56 ;
57 [label="Repitio de grado <= 1.5\ngini = 0.495\nsamples = 56964\nvalue = [31412, 25552]", fillcolor="#fae7da"] ;
49 -> 57 ;
58 [label="Te va bien en lengua <= 2.5\ngini = 0.498\nsamples = 49508\nvalue = [26481, 23027]", fillcolor="#fcefe5"] ;
57 -> 58 ;
59 [label="gini = 0.5\nsamples = 28331\nvalue = [14235, 14096]", fillcolor="#fffefd"] ;
58 -> 59 ;
60 [label="gini = 0.488\nsamples = 21177\nvalue = [12246, 8931]", fillcolor="#f8ddc9"] ;
58 -> 60 ;
61 [label="Falta a la escuela por trabajo <= 0.0\ngini = 0.448\nsamples = 7456\nvalue = [4931, 2525]", fillcolor="#f2c29e"] ;
57 -> 61 ;
62 [label="gini = 0.426\nsamples = 6050\nvalue = [4192, 1858]", fillcolor="#f1b991"] ;
61 -> 62 ;
63 [label="gini = 0.499\nsamples = 1406\nvalue = [739, 667]", fillcolor="#fcf3ec"] ;
61 -> 63 ;
64 [label="Te va bien en matem <= 2.5\ngini = 0.365\nsamples = 134147\nvalue = [32184, 101963]", fillcolor="#77bced"] ;
0 -> 64 [labeldistance=2.5, labelangle=-45, headlabel="False"] ;
65 [label="Cuantos Libros <= 1.5\ngini = 0.298\nsamples = 97177\nvalue = [17716, 79461]", fillcolor="#65b3eb"] ;
64 -> 65 ;
66 [label="Repitio de grado <= 1.5\ngini = 0.474\nsamples = 5714\nvalue = [2206, 3508]", fillcolor="#b6dbf5"] ;
65 -> 66 ;
67 [label="Realiza Tareas en el Hogar <= 1.5\ngini = 0.467\nsamples = 5400\nvalue = [2007, 3393]", fillcolor="#aed7f4"] ;
66 -> 67 ;
68 [label="Cuantos Libros <= -2.5\ngini = 0.498\nsamples = 1353\nvalue = [632, 721]", fillcolor="#e7f3fc"] ;
67 -> 68 ;
69 [label="gini = 0.463\nsamples = 431\nvalue = [157, 274]", fillcolor="#aad5f4"] ;
68 -> 69 ;
70 [label="gini = 0.5\nsamples = 922\nvalue = [475, 447]", fillcolor="#fdf8f3"] ;
68 -> 70 ;
71 [label="Resuelve matem. <= 2.5\ngini = 0.449\nsamples = 4047\nvalue = [1375, 2672]", fillcolor="#9fcff2"] ;
67 -> 71 ;
72 [label="gini = 0.432\nsamples = 3390\nvalue = [1070, 2320]", fillcolor="#94caf1"] ;
71 -> 72 ;
73 [label="gini = 0.497\nsamples = 657\nvalue = [305, 352]", fillcolor="#e5f2fc"] ;
71 -> 73 ;
74 [label="Te va bien en lengua <= 2.5\ngini = 0.464\nsamples = 314\nvalue = [199, 115]", fillcolor="#f4caab"] ;
66 -> 74 ;
75 [label="Cuida familiar <= 3.5\ngini = 0.484\nsamples = 200\nvalue = [118, 82]", fillcolor="#f7d9c3"] ;
74 -> 75 ;
76 [label="gini = 0.456\nsamples = 148\nvalue = [96, 52]", fillcolor="#f3c5a4"] ;
75 -> 76 ;
77 [label="gini = 0.488\nsamples = 52\nvalue = [22, 30]", fillcolor="#cae5f8"] ;
75 -> 77 ;
78 [label="Maestro vuele a explicar <= 3.5\ngini = 0.411\nsamples = 114\nvalue = [81, 33]", fillcolor="#f0b48a"] ;
74 -> 78 ;
79 [label="gini = 0.431\nsamples = 105\nvalue = [72, 33]", fillcolor="#f1bb94"] ;
78 -> 79 ;
80 [label="gini = 0.0\nsamples = 9\nvalue = [9, 0]", fillcolor="#e58139"] ;
78 -> 80 ;
81 [label="Resuelve matem. <= 2.5\ngini = 0.282\nsamples = 91463\nvalue = [15510, 75953]", fillcolor="#61b1ea"] ;
65 -> 81 ;
82 [label="Ayuda a los padres trabajando <= 1.5\ngini = 0.26\nsamples = 81289\nvalue = [12476, 68813]", fillcolor="#5dafea"] ;
81 -> 82 ;
83 [label="Cultiva en casa <= 1.5\ngini = 0.328\nsamples = 30843\nvalue = [6387, 24456]", fillcolor="#6db7ec"] ;
82 -> 83 ;
84 [label="gini = 0.44\nsamples = 4255\nvalue = [1392, 2863]", fillcolor="#99cdf2"] ;
83 -> 84 ;
85 [label="gini = 0.305\nsamples = 26588\nvalue = [4995, 21593]", fillcolor="#67b4eb"] ;
83 -> 85 ;
86 [label="Repitio de grado <= 1.5\ngini = 0.212\nsamples = 50446\nvalue = [6089, 44357]", fillcolor="#54aae9"] ;
82 -> 86 ;
87 [label="gini = 0.207\nsamples = 49833\nvalue = [5841, 43992]", fillcolor="#53aae8"] ;
86 -> 87 ;
88 [label="gini = 0.482\nsamples = 613\nvalue = [248, 365]", fillcolor="#c0e0f7"] ;
86 -> 88 ;
89 [label="Ayuda a los padres trabajando <= 1.5\ngini = 0.419\nsamples = 10174\nvalue = [3034, 7140]", fillcolor="#8dc7f0"] ;
81 -> 89 ;
90 [label="Como lee <= 2.5\ngini = 0.465\nsamples = 4042\nvalue = [1490, 2552]", fillcolor="#add6f4"] ;
89 -> 90 ;
91 [label="gini = 0.45\nsamples = 3165\nvalue = [1081, 2084]", fillcolor="#a0d0f2"] ;
90 -> 91 ;
92 [label="gini = 0.498\nsamples = 877\nvalue = [409, 468]", fillcolor="#e6f3fc"] ;
90 -> 92 ;
93 [label="Cultiva en casa <= 1.5\ngini = 0.377\nsamples = 6132\nvalue = [1544, 4588]", fillcolor="#7cbeee"] ;
89 -> 93 ;
94 [label="gini = 0.482\nsamples = 507\nvalue = [205, 302]", fillcolor="#bfe0f7"] ;
93 -> 94 ;
95 [label="gini = 0.363\nsamples = 5625\nvalue = [1339, 4286]", fillcolor="#77bced"] ;
93 -> 95 ;
96 [label="Cuantos Libros <= 1.5\ngini = 0.476\nsamples = 36970\nvalue = [14468, 22502]", fillcolor="#b8dcf6"] ;
64 -> 96 ;
97 [label="Realiza Tareas en el Hogar <= 1.5\ngini = 0.488\nsamples = 3553\nvalue = [2050, 1503]", fillcolor="#f8ddca"] ;
96 -> 97 ;
98 [label="Te va bien en lengua <= 2.5\ngini = 0.44\nsamples = 742\nvalue = [500, 242]", fillcolor="#f2be99"] ;
97 -> 98 ;
99 [label="Cultiva en casa <= 3.5\ngini = 0.47\nsamples = 410\nvalue = [255, 155]", fillcolor="#f5ceb1"] ;
98 -> 99 ;
100 [label="gini = 0.444\nsamples = 243\nvalue = [162, 81]", fillcolor="#f2c09c"] ;
99 -> 100 ;
101 [label="gini = 0.494\nsamples = 167\nvalue = [93, 74]", fillcolor="#fae5d7"] ;
99 -> 101 ;
102 [label="Computadora <= -2.5\ngini = 0.387\nsamples = 332\nvalue = [245, 87]", fillcolor="#eeae7f"] ;
98 -> 102 ;
103 [label="gini = 0.219\nsamples = 88\nvalue = [77, 11]", fillcolor="#e99355"] ;
102 -> 103 ;
104 [label="gini = 0.429\nsamples = 244\nvalue = [168, 76]", fillcolor="#f1ba93"] ;
102 -> 104 ;
105 [label="Te va bien en lengua <= 2.5\ngini = 0.495\nsamples = 2811\nvalue = [1550, 1261]", fillcolor="#fae8da"] ;
97 -> 105 ;
106 [label="Cuantos Libros <= -2.5\ngini = 0.5\nsamples = 1515\nvalue = [773, 742]", fillcolor="#fefaf7"] ;
105 -> 106 ;
107 [label="gini = 0.459\nsamples = 210\nvalue = [75, 135]", fillcolor="#a7d3f3"] ;
106 -> 107 ;
108 [label="gini = 0.498\nsamples = 1305\nvalue = [698, 607]", fillcolor="#fcefe5"] ;
106 -> 108 ;
109 [label="Como escribe <= 1.5\ngini = 0.48\nsamples = 1296\nvalue = [777, 519]", fillcolor="#f6d5bd"] ;
105 -> 109 ;
110 [label="gini = 0.415\nsamples = 204\nvalue = [144, 60]", fillcolor="#f0b58b"] ;
109 -> 110 ;
111 [label="gini = 0.487\nsamples = 1092\nvalue = [633, 459]", fillcolor="#f8dcc9"] ;
109 -> 111 ;
112 [label="Te va bien en lengua <= 2.5\ngini = 0.467\nsamples = 33417\nvalue = [12418, 20999]", fillcolor="#aed7f4"] ;
96 -> 112 ;
113 [label="Repitio de grado <= 1.5\ngini = 0.444\nsamples = 21734\nvalue = [7227, 14507]", fillcolor="#9ccef2"] ;
112 -> 113 ;
114 [label="Ayuda a los padres trabajando <= 1.5\ngini = 0.439\nsamples = 21142\nvalue = [6867, 14275]", fillcolor="#98ccf2"] ;
113 -> 114 ;
115 [label="gini = 0.472\nsamples = 8098\nvalue = [3084, 5014]", fillcolor="#b3d9f5"] ;
114 -> 115 ;
116 [label="gini = 0.412\nsamples = 13044\nvalue = [3783, 9261]", fillcolor="#8ac5f0"] ;
114 -> 116 ;
117 [label="Cultiva en casa <= 2.5\ngini = 0.477\nsamples = 592\nvalue = [360, 232]", fillcolor="#f6d2b9"] ;
113 -> 117 ;
118 [label="gini = 0.32\nsamples = 120\nvalue = [96, 24]", fillcolor="#eca06a"] ;
117 -> 118 ;
119 [label="gini = 0.493\nsamples = 472\nvalue = [264, 208]", fillcolor="#f9e4d5"] ;
117 -> 119 ;
120 [label="Cuida familiar <= 1.5\ngini = 0.494\nsamples = 11683\nvalue = [5191, 6492]", fillcolor="#d7ebfa"] ;
112 -> 120 ;
121 [label="Cultiva en casa <= 3.5\ngini = 0.495\nsamples = 2130\nvalue = [1171, 959]", fillcolor="#fae8db"] ;
120 -> 121 ;
122 [label="gini = 0.475\nsamples = 1018\nvalue = [622, 396]", fillcolor="#f6d1b7"] ;
121 -> 122 ;
123 [label="gini = 0.5\nsamples = 1112\nvalue = [549, 563]", fillcolor="#fafdfe"] ;
121 -> 123 ;
124 [label="Realiza Tareas en el Hogar <= 1.5\ngini = 0.487\nsamples = 9553\nvalue = [4020, 5533]", fillcolor="#c9e4f8"] ;
120 -> 124 ;
125 [label="gini = 0.498\nsamples = 1111\nvalue = [590, 521]", fillcolor="#fcf0e8"] ;
124 -> 125 ;
126 [label="gini = 0.482\nsamples = 8442\nvalue = [3430, 5012]", fillcolor="#c1e0f7"] ;
124 -> 126 ;
}